18.1379001602,9.01161286677,-15.1300688614,-14.4801838072,33.8541032772,-43.2642487814,27.5508105007,-13.1012671007,-4.47781770306,-0.182034618677,-10.3533070995,2.15393387392,2.41924263568,2.01399209113,-8.26794094294,10.9253403142,-3.59108909391,5.03579574325,1.75742619957,-0.995293337629,1.99555081673,-0.8981839338,0.184983977155,0.160520415258,-0.400424283789,0.0462862114315,20.8522361773,5.95972837618,-18.3086497081,-22.4047913518,33.8788971713,-48.4619427941,28.9653649688,-17.2300231431,-4.60231086058,2.24058061002,-6.7042022863,1.65819276868,1.47003742477,1.87018776913,-4.92237598141,11.0049987849,-4.62356520559,5.34599690287,1.66964368757,-1.24733338404,2.5003933592,-0.997042106639,0.343306127429,0.101612422347,-0.267205044376,0.181292879723,21.5062887832,7.97793700375,-19.488904338,-29.7096669422,32.4602631111,-44.5637703677,28.0833362249,-18.0376004668,-2.73728793596,-4.33230585277,-2.81870860938,-0.468158832861,3.18256596482,1.85793553137,-2.10645614493,11.1377850989,-2.45534688932,4.79602437063,1.95430634357,-1.09265784599,1.94455323448,-0.591125845768,0.310209321668,0.0687302502534,-0.385691900802,0.185785389251,19.4600381579,9.7249485773,-14.4125659778,-29.738994576,27.1767762339,-38.6916387674,27.4786158586,-16.9600735861,0.12254842357,-4.33703443456,-0.0149328123019,-2.47662038333,4.60325044366,0.82402593835,-0.03561731712,8.77314631767,-1.1235934735,3.70515639727,2.52436234431,-0.725390508254,2.06436192232,-0.509609162751,0.334942892904,0.0562377377283,-0.35112616847,0.138909740552
