17.1977924372,15.9114475984,2.68211741979,-17.2328973672,13.4277189808,-26.2446150005,21.089318281,-13.2683504323,7.72445447347,-5.78628357278,0.0593559096199,-4.14265494352,-1.63025957834,-2.5379477302,3.94404292399,-4.18372504252,2.33321910296,-6.23815444206,0.109104947267,-2.75868102976,0.170260133812,-0.350867733891,-0.16779452387,-0.0245126290762,0.269076032744,0.294469434122,19.5731775211,5.67358275094,-10.2018123739,-12.1086569042,20.9117356853,-28.8210015988,24.3763575128,-15.9579943743,-3.05274871189,1.71123312543,-7.7897558694,8.90081897304,-6.76128070844,4.67699042405,3.33009564771,2.70398423057,3.43439923785,-1.19842975637,1.45189114664,-0.635732191899,0.106307043782,0.0536981261856,0.0213003744007,-0.160738275121,0.091178550425,-0.113950937111,19.7615277231,5.90992642007,-9.85150089323,-12.7905565446,17.6651506013,-28.3424378431,22.2891870616,-15.9244234536,-2.53659998207,2.2523040602,-8.03793331734,8.42849017364,-8.10973717542,4.0366088183,3.20496958156,1.18304090218,2.15933530881,-3.65857896466,0.199632098404,-1.32999442635,-0.142153508181,0.0868930372582,-0.0964088685354,-0.139788948496,0.343918352663,-0.122448773842,18.5115710847,8.2401662729,-0.476674549016,-13.8600975914,12.2161866952,-26.2232085197,19.1779043829,-16.8110832554,-0.72672309929,-4.45667700767,-5.94364715041,1.63773680101,-4.42825202958,-1.1221438654,2.49946292382,-2.68012711387,2.47231204884,-4.69077086344,2.31406144882,-0.98110047251,0.888019181876,-0.162735510381,-0.118218738295,-0.0454163979887,0.352161887672,0.0509407242139
